
int dist(int a, int b)
{ int dis = (a-b >= 0) ? a-b : b-a;
 return dis;
}
#include <llbmc.h>

#include <assert.h>
#include <stdio.h>
#include <stdlib.h>
int main () {
int cond0;
int dummy = 0;
int N;
int var0;
var0 = __llbmc_nondef_int();
int var1;
var1 = __llbmc_nondef_int();
int var2;
var2 = __llbmc_nondef_int();
int var3;
var3 = __llbmc_nondef_int();
int var4;
var4 = __llbmc_nondef_int();
int var5;
var5 = __llbmc_nondef_int();
int var6;
var6 = __llbmc_nondef_int();
int var7;
var7 = __llbmc_nondef_int();
int var8;
var8 = __llbmc_nondef_int();
int var9;
var9 = __llbmc_nondef_int();
int var10;
var10 = __llbmc_nondef_int();
int var11;
var11 = __llbmc_nondef_int();
int var12;
var12 = __llbmc_nondef_int();
int var13;
var13 = __llbmc_nondef_int();
int var14;
var14 = __llbmc_nondef_int();
int var15;
var15 = __llbmc_nondef_int();
int var16;
var16 = __llbmc_nondef_int();
int var17;
var17 = __llbmc_nondef_int();
int var18;
var18 = __llbmc_nondef_int();
int var19;
var19 = __llbmc_nondef_int();
int var20;
var20 = __llbmc_nondef_int();
int var21;
var21 = __llbmc_nondef_int();
int var22;
var22 = __llbmc_nondef_int();
int var23;
var23 = __llbmc_nondef_int();
int var24;
var24 = __llbmc_nondef_int();
int var25;
var25 = __llbmc_nondef_int();
int var26;
var26 = __llbmc_nondef_int();
int var27;
var27 = __llbmc_nondef_int();
int var28;
var28 = __llbmc_nondef_int();
int var29;
var29 = __llbmc_nondef_int();
int var30;
var30 = __llbmc_nondef_int();
int var31;
var31 = __llbmc_nondef_int();
int var32;
var32 = __llbmc_nondef_int();
int var33;
var33 = __llbmc_nondef_int();
int var34;
var34 = __llbmc_nondef_int();
int var35;
var35 = __llbmc_nondef_int();
int var36;
var36 = __llbmc_nondef_int();
int var37;
var37 = __llbmc_nondef_int();
int var38;
var38 = __llbmc_nondef_int();
int var39;
var39 = __llbmc_nondef_int();
int var40;
var40 = __llbmc_nondef_int();
int var41;
var41 = __llbmc_nondef_int();
int var42;
var42 = __llbmc_nondef_int();
int var43;
var43 = __llbmc_nondef_int();
int var44;
var44 = __llbmc_nondef_int();
int var45;
var45 = __llbmc_nondef_int();
int var46;
var46 = __llbmc_nondef_int();
int var47;
var47 = __llbmc_nondef_int();
int var48;
var48 = __llbmc_nondef_int();
int var49;
var49 = __llbmc_nondef_int();
int var50;
var50 = __llbmc_nondef_int();
int var51;
var51 = __llbmc_nondef_int();
int var52;
var52 = __llbmc_nondef_int();
int var53;
var53 = __llbmc_nondef_int();
int var54;
var54 = __llbmc_nondef_int();
int var55;
var55 = __llbmc_nondef_int();
int var56;
var56 = __llbmc_nondef_int();
int var57;
var57 = __llbmc_nondef_int();
int var58;
var58 = __llbmc_nondef_int();
int var59;
var59 = __llbmc_nondef_int();
int var60;
var60 = __llbmc_nondef_int();
int var61;
var61 = __llbmc_nondef_int();
int var62;
var62 = __llbmc_nondef_int();
int var63;
var63 = __llbmc_nondef_int();
int var64;
var64 = __llbmc_nondef_int();
int var65;
var65 = __llbmc_nondef_int();
int var66;
var66 = __llbmc_nondef_int();
int var67;
var67 = __llbmc_nondef_int();
int var68;
var68 = __llbmc_nondef_int();
int var69;
var69 = __llbmc_nondef_int();
int var70;
var70 = __llbmc_nondef_int();
int var71;
var71 = __llbmc_nondef_int();
int var72;
var72 = __llbmc_nondef_int();
int var73;
var73 = __llbmc_nondef_int();
int var74;
var74 = __llbmc_nondef_int();
int var75;
var75 = __llbmc_nondef_int();
int var76;
var76 = __llbmc_nondef_int();
int var77;
var77 = __llbmc_nondef_int();
int var78;
var78 = __llbmc_nondef_int();
int var79;
var79 = __llbmc_nondef_int();
int var80;
var80 = __llbmc_nondef_int();
int var81;
var81 = __llbmc_nondef_int();
int var82;
var82 = __llbmc_nondef_int();
int var83;
var83 = __llbmc_nondef_int();
int var84;
var84 = __llbmc_nondef_int();
int var85;
var85 = __llbmc_nondef_int();
int var86;
var86 = __llbmc_nondef_int();
int var87;
var87 = __llbmc_nondef_int();
int var88;
var88 = __llbmc_nondef_int();
int var89;
var89 = __llbmc_nondef_int();
int myvar0 = 1;
if(( 1))
myvar0 = 1;
else exit(0);
if(((var0 >= 0 & var0 <= 1 &  1) & (var1 >= 0 & var1 <= 1 &  1) & (var2 >= 0 & var2 <= 1 &  1) & (var3 >= 0 & var3 <= 1 &  1) & (var4 >= 0 & var4 <= 1 &  1) & (var5 >= 0 & var5 <= 1 &  1) & (var6 >= 0 & var6 <= 1 &  1) & (var7 >= 0 & var7 <= 1 &  1) & (var8 >= 0 & var8 <= 1 &  1) & (var9 >= 0 & var9 <= 1 &  1) & (var10 >= 0 & var10 <= 1 &  1) & (var11 >= 0 & var11 <= 1 &  1) & (var12 >= 0 & var12 <= 1 &  1) & (var13 >= 0 & var13 <= 1 &  1) & (var14 >= 0 & var14 <= 1 &  1) & (var15 >= 0 & var15 <= 1 &  1) & (var16 >= 0 & var16 <= 1 &  1) & (var17 >= 0 & var17 <= 1 &  1) & (var18 >= 0 & var18 <= 1 &  1) & (var19 >= 0 & var19 <= 1 &  1) & (var20 >= 0 & var20 <= 1 &  1) & (var21 >= 0 & var21 <= 1 &  1) & (var22 >= 0 & var22 <= 1 &  1) & (var23 >= 0 & var23 <= 1 &  1) & (var24 >= 0 & var24 <= 1 &  1) & (var25 >= 0 & var25 <= 1 &  1) & (var26 >= 0 & var26 <= 1 &  1) & (var27 >= 0 & var27 <= 1 &  1) & (var28 >= 0 & var28 <= 1 &  1) & (var29 >= 0 & var29 <= 1 &  1) & (var30 >= 0 & var30 <= 1 &  1) & (var31 >= 0 & var31 <= 1 &  1) & (var32 >= 0 & var32 <= 1 &  1) & (var33 >= 0 & var33 <= 1 &  1) & (var34 >= 0 & var34 <= 1 &  1) & (var35 >= 0 & var35 <= 1 &  1) & (var36 >= 0 & var36 <= 1 &  1) & (var37 >= 0 & var37 <= 1 &  1) & (var38 >= 0 & var38 <= 1 &  1) & (var39 >= 0 & var39 <= 1 &  1) & (var40 >= 0 & var40 <= 1 &  1) & (var41 >= 0 & var41 <= 1 &  1) & (var42 >= 0 & var42 <= 1 &  1) & (var43 >= 0 & var43 <= 1 &  1) & (var44 >= 0 & var44 <= 1 &  1) & (var45 >= 0 & var45 <= 1 &  1) & (var46 >= 0 & var46 <= 1 &  1) & (var47 >= 0 & var47 <= 1 &  1) & (var48 >= 0 & var48 <= 1 &  1) & (var49 >= 0 & var49 <= 1 &  1) & (var50 >= 0 & var50 <= 1 &  1) & (var51 >= 0 & var51 <= 1 &  1) & (var52 >= 0 & var52 <= 1 &  1) & (var53 >= 0 & var53 <= 1 &  1) & (var54 >= 0 & var54 <= 1 &  1) & (var55 >= 0 & var55 <= 1 &  1) & (var56 >= 0 & var56 <= 1 &  1) & (var57 >= 0 & var57 <= 1 &  1) & (var58 >= 0 & var58 <= 1 &  1) & (var59 >= 0 & var59 <= 1 &  1) & (var60 >= 0 & var60 <= 1 &  1) & (var61 >= 0 & var61 <= 1 &  1) & (var62 >= 0 & var62 <= 1 &  1) & (var63 >= 0 & var63 <= 1 &  1) & (var64 >= 0 & var64 <= 1 &  1) & (var65 >= 0 & var65 <= 1 &  1) & (var66 >= 0 & var66 <= 1 &  1) & (var67 >= 0 & var67 <= 1 &  1) & (var68 >= 0 & var68 <= 1 &  1) & (var69 >= 0 & var69 <= 1 &  1) & (var70 >= 0 & var70 <= 1 &  1) & (var71 >= 0 & var71 <= 1 &  1) & (var72 >= 0 & var72 <= 1 &  1) & (var73 >= 0 & var73 <= 1 &  1) & (var74 >= 0 & var74 <= 1 &  1) & (var75 >= 0 & var75 <= 1 &  1) & (var76 >= 0 & var76 <= 1 &  1) & (var77 >= 0 & var77 <= 1 &  1) & (var78 >= 0 & var78 <= 1 &  1) & (var79 >= 0 & var79 <= 1 &  1) & (var80 >= 0 & var80 <= 1 &  1) & (var81 >= 0 & var81 <= 1 &  1) & (var82 >= 0 & var82 <= 1 &  1) & (var83 >= 0 & var83 <= 1 &  1) & (var84 >= 0 & var84 <= 1 &  1) & (var85 >= 0 & var85 <= 1 &  1) & (var86 >= 0 & var86 <= 1 &  1) & (var87 >= 0 & var87 <= 1 &  1) & (var88 >= 0 & var88 <= 1 &  1) & (var89 >= 0 & var89 <= 1 &  1) &  1))
myvar0 = 1;
else exit(0);
if(( var58 == 0 & var59 == 0 & var0 == 1 ) | ( var58 == 0 & var59 == 1 & var0 == 0 ) | ( var58 == 1 & var59 == 0 & var0 == 0 ) | ( var58 == 1 & var59 == 1 & var0 == 1 ) |  0) 
myvar0 = 1;
else exit(0);
if(( var0 == 0 & var60 == 0 & var1 == 1 ) | ( var0 == 0 & var60 == 1 & var1 == 0 ) | ( var0 == 1 & var60 == 0 & var1 == 0 ) | ( var0 == 1 & var60 == 1 & var1 == 1 ) | ( var1 == 0 & var61 == 0 & var2 == 1 ) | ( var1 == 0 & var61 == 1 & var2 == 0 ) | ( var1 == 1 & var61 == 0 & var2 == 0 ) | ( var1 == 1 & var61 == 1 & var2 == 1 ) | ( var2 == 0 & var62 == 0 & var3 == 1 ) | ( var2 == 0 & var62 == 1 & var3 == 0 ) | ( var2 == 1 & var62 == 0 & var3 == 0 ) | ( var2 == 1 & var62 == 1 & var3 == 1 ) | ( var3 == 0 & var63 == 0 & var4 == 1 ) | ( var3 == 0 & var63 == 1 & var4 == 0 ) | ( var3 == 1 & var63 == 0 & var4 == 0 ) | ( var3 == 1 & var63 == 1 & var4 == 1 ) | ( var4 == 0 & var64 == 0 & var5 == 1 ) | ( var4 == 0 & var64 == 1 & var5 == 0 ) | ( var4 == 1 & var64 == 0 & var5 == 0 ) | ( var4 == 1 & var64 == 1 & var5 == 1 ) | ( var5 == 0 & var65 == 0 & var6 == 1 ) | ( var5 == 0 & var65 == 1 & var6 == 0 ) | ( var5 == 1 & var65 == 0 & var6 == 0 ) | ( var5 == 1 & var65 == 1 & var6 == 1 ) | ( var6 == 0 & var66 == 0 & var7 == 1 ) | ( var6 == 0 & var66 == 1 & var7 == 0 ) | ( var6 == 1 & var66 == 0 & var7 == 0 ) | ( var6 == 1 & var66 == 1 & var7 == 1 ) | ( var7 == 0 & var67 == 0 & var8 == 1 ) | ( var7 == 0 & var67 == 1 & var8 == 0 ) | ( var7 == 1 & var67 == 0 & var8 == 0 ) | ( var7 == 1 & var67 == 1 & var8 == 1 ) | ( var8 == 0 & var68 == 0 & var9 == 1 ) | ( var8 == 0 & var68 == 1 & var9 == 0 ) | ( var8 == 1 & var68 == 0 & var9 == 0 ) | ( var8 == 1 & var68 == 1 & var9 == 1 ) | ( var9 == 0 & var69 == 0 & var10 == 1 ) | ( var9 == 0 & var69 == 1 & var10 == 0 ) | ( var9 == 1 & var69 == 0 & var10 == 0 ) | ( var9 == 1 & var69 == 1 & var10 == 1 ) | ( var10 == 0 & var70 == 0 & var11 == 1 ) | ( var10 == 0 & var70 == 1 & var11 == 0 ) | ( var10 == 1 & var70 == 0 & var11 == 0 ) | ( var10 == 1 & var70 == 1 & var11 == 1 ) | ( var11 == 0 & var71 == 0 & var12 == 1 ) | ( var11 == 0 & var71 == 1 & var12 == 0 ) | ( var11 == 1 & var71 == 0 & var12 == 0 ) | ( var11 == 1 & var71 == 1 & var12 == 1 ) | ( var12 == 0 & var72 == 0 & var13 == 1 ) | ( var12 == 0 & var72 == 1 & var13 == 0 ) | ( var12 == 1 & var72 == 0 & var13 == 0 ) | ( var12 == 1 & var72 == 1 & var13 == 1 ) | ( var13 == 0 & var73 == 0 & var14 == 1 ) | ( var13 == 0 & var73 == 1 & var14 == 0 ) | ( var13 == 1 & var73 == 0 & var14 == 0 ) | ( var13 == 1 & var73 == 1 & var14 == 1 ) | ( var14 == 0 & var74 == 0 & var15 == 1 ) | ( var14 == 0 & var74 == 1 & var15 == 0 ) | ( var14 == 1 & var74 == 0 & var15 == 0 ) | ( var14 == 1 & var74 == 1 & var15 == 1 ) | ( var15 == 0 & var75 == 0 & var16 == 1 ) | ( var15 == 0 & var75 == 1 & var16 == 0 ) | ( var15 == 1 & var75 == 0 & var16 == 0 ) | ( var15 == 1 & var75 == 1 & var16 == 1 ) | ( var16 == 0 & var76 == 0 & var17 == 1 ) | ( var16 == 0 & var76 == 1 & var17 == 0 ) | ( var16 == 1 & var76 == 0 & var17 == 0 ) | ( var16 == 1 & var76 == 1 & var17 == 1 ) | ( var17 == 0 & var77 == 0 & var18 == 1 ) | ( var17 == 0 & var77 == 1 & var18 == 0 ) | ( var17 == 1 & var77 == 0 & var18 == 0 ) | ( var17 == 1 & var77 == 1 & var18 == 1 ) | ( var18 == 0 & var78 == 0 & var19 == 1 ) | ( var18 == 0 & var78 == 1 & var19 == 0 ) | ( var18 == 1 & var78 == 0 & var19 == 0 ) | ( var18 == 1 & var78 == 1 & var19 == 1 ) | ( var19 == 0 & var79 == 0 & var20 == 1 ) | ( var19 == 0 & var79 == 1 & var20 == 0 ) | ( var19 == 1 & var79 == 0 & var20 == 0 ) | ( var19 == 1 & var79 == 1 & var20 == 1 ) | ( var20 == 0 & var80 == 0 & var21 == 1 ) | ( var20 == 0 & var80 == 1 & var21 == 0 ) | ( var20 == 1 & var80 == 0 & var21 == 0 ) | ( var20 == 1 & var80 == 1 & var21 == 1 ) | ( var21 == 0 & var81 == 0 & var22 == 1 ) | ( var21 == 0 & var81 == 1 & var22 == 0 ) | ( var21 == 1 & var81 == 0 & var22 == 0 ) | ( var21 == 1 & var81 == 1 & var22 == 1 ) | ( var22 == 0 & var82 == 0 & var23 == 1 ) | ( var22 == 0 & var82 == 1 & var23 == 0 ) | ( var22 == 1 & var82 == 0 & var23 == 0 ) | ( var22 == 1 & var82 == 1 & var23 == 1 ) | ( var23 == 0 & var83 == 0 & var24 == 1 ) | ( var23 == 0 & var83 == 1 & var24 == 0 ) | ( var23 == 1 & var83 == 0 & var24 == 0 ) | ( var23 == 1 & var83 == 1 & var24 == 1 ) | ( var24 == 0 & var84 == 0 & var25 == 1 ) | ( var24 == 0 & var84 == 1 & var25 == 0 ) | ( var24 == 1 & var84 == 0 & var25 == 0 ) | ( var24 == 1 & var84 == 1 & var25 == 1 ) | ( var25 == 0 & var85 == 0 & var26 == 1 ) | ( var25 == 0 & var85 == 1 & var26 == 0 ) | ( var25 == 1 & var85 == 0 & var26 == 0 ) | ( var25 == 1 & var85 == 1 & var26 == 1 ) | ( var26 == 0 & var86 == 0 & var27 == 1 ) | ( var26 == 0 & var86 == 1 & var27 == 0 ) | ( var26 == 1 & var86 == 0 & var27 == 0 ) | ( var26 == 1 & var86 == 1 & var27 == 1 ) | ( var27 == 0 & var87 == 0 & var28 == 1 ) | ( var27 == 0 & var87 == 1 & var28 == 0 ) | ( var27 == 1 & var87 == 0 & var28 == 0 ) | ( var27 == 1 & var87 == 1 & var28 == 1 ) |  0) 
myvar0 = 1;
else exit(0);
if(( var28 == 0 & var88 == 0 & var89 == 1 ) | ( var28 == 0 & var88 == 1 & var89 == 0 ) | ( var28 == 1 & var88 == 0 & var89 == 0 ) | ( var28 == 1 & var88 == 1 & var89 == 1 ) | ( var29 == 0 & var88 == 0 & var89 == 1 ) | ( var29 == 0 & var88 == 1 & var89 == 0 ) | ( var29 == 1 & var88 == 0 & var89 == 0 ) | ( var29 == 1 & var88 == 1 & var89 == 1 ) |  0) 
myvar0 = 1;
else exit(0);
if(( var30 == 0 & var87 == 0 & var29 == 1 ) | ( var30 == 0 & var87 == 1 & var29 == 0 ) | ( var30 == 1 & var87 == 0 & var29 == 0 ) | ( var30 == 1 & var87 == 1 & var29 == 1 ) | ( var31 == 0 & var86 == 0 & var30 == 1 ) | ( var31 == 0 & var86 == 1 & var30 == 0 ) | ( var31 == 1 & var86 == 0 & var30 == 0 ) | ( var31 == 1 & var86 == 1 & var30 == 1 ) | ( var32 == 0 & var85 == 0 & var31 == 1 ) | ( var32 == 0 & var85 == 1 & var31 == 0 ) | ( var32 == 1 & var85 == 0 & var31 == 0 ) | ( var32 == 1 & var85 == 1 & var31 == 1 ) | ( var33 == 0 & var84 == 0 & var32 == 1 ) | ( var33 == 0 & var84 == 1 & var32 == 0 ) | ( var33 == 1 & var84 == 0 & var32 == 0 ) | ( var33 == 1 & var84 == 1 & var32 == 1 ) | ( var34 == 0 & var83 == 0 & var33 == 1 ) | ( var34 == 0 & var83 == 1 & var33 == 0 ) | ( var34 == 1 & var83 == 0 & var33 == 0 ) | ( var34 == 1 & var83 == 1 & var33 == 1 ) | ( var35 == 0 & var82 == 0 & var34 == 1 ) | ( var35 == 0 & var82 == 1 & var34 == 0 ) | ( var35 == 1 & var82 == 0 & var34 == 0 ) | ( var35 == 1 & var82 == 1 & var34 == 1 ) | ( var36 == 0 & var81 == 0 & var35 == 1 ) | ( var36 == 0 & var81 == 1 & var35 == 0 ) | ( var36 == 1 & var81 == 0 & var35 == 0 ) | ( var36 == 1 & var81 == 1 & var35 == 1 ) | ( var37 == 0 & var80 == 0 & var36 == 1 ) | ( var37 == 0 & var80 == 1 & var36 == 0 ) | ( var37 == 1 & var80 == 0 & var36 == 0 ) | ( var37 == 1 & var80 == 1 & var36 == 1 ) | ( var38 == 0 & var79 == 0 & var37 == 1 ) | ( var38 == 0 & var79 == 1 & var37 == 0 ) | ( var38 == 1 & var79 == 0 & var37 == 0 ) | ( var38 == 1 & var79 == 1 & var37 == 1 ) | ( var39 == 0 & var78 == 0 & var38 == 1 ) | ( var39 == 0 & var78 == 1 & var38 == 0 ) | ( var39 == 1 & var78 == 0 & var38 == 0 ) | ( var39 == 1 & var78 == 1 & var38 == 1 ) | ( var40 == 0 & var77 == 0 & var39 == 1 ) | ( var40 == 0 & var77 == 1 & var39 == 0 ) | ( var40 == 1 & var77 == 0 & var39 == 0 ) | ( var40 == 1 & var77 == 1 & var39 == 1 ) | ( var41 == 0 & var76 == 0 & var40 == 1 ) | ( var41 == 0 & var76 == 1 & var40 == 0 ) | ( var41 == 1 & var76 == 0 & var40 == 0 ) | ( var41 == 1 & var76 == 1 & var40 == 1 ) | ( var42 == 0 & var75 == 0 & var41 == 1 ) | ( var42 == 0 & var75 == 1 & var41 == 0 ) | ( var42 == 1 & var75 == 0 & var41 == 0 ) | ( var42 == 1 & var75 == 1 & var41 == 1 ) | ( var43 == 0 & var74 == 0 & var42 == 1 ) | ( var43 == 0 & var74 == 1 & var42 == 0 ) | ( var43 == 1 & var74 == 0 & var42 == 0 ) | ( var43 == 1 & var74 == 1 & var42 == 1 ) | ( var44 == 0 & var73 == 0 & var43 == 1 ) | ( var44 == 0 & var73 == 1 & var43 == 0 ) | ( var44 == 1 & var73 == 0 & var43 == 0 ) | ( var44 == 1 & var73 == 1 & var43 == 1 ) | ( var45 == 0 & var72 == 0 & var44 == 1 ) | ( var45 == 0 & var72 == 1 & var44 == 0 ) | ( var45 == 1 & var72 == 0 & var44 == 0 ) | ( var45 == 1 & var72 == 1 & var44 == 1 ) | ( var46 == 0 & var71 == 0 & var45 == 1 ) | ( var46 == 0 & var71 == 1 & var45 == 0 ) | ( var46 == 1 & var71 == 0 & var45 == 0 ) | ( var46 == 1 & var71 == 1 & var45 == 1 ) | ( var47 == 0 & var70 == 0 & var46 == 1 ) | ( var47 == 0 & var70 == 1 & var46 == 0 ) | ( var47 == 1 & var70 == 0 & var46 == 0 ) | ( var47 == 1 & var70 == 1 & var46 == 1 ) | ( var48 == 0 & var69 == 0 & var47 == 1 ) | ( var48 == 0 & var69 == 1 & var47 == 0 ) | ( var48 == 1 & var69 == 0 & var47 == 0 ) | ( var48 == 1 & var69 == 1 & var47 == 1 ) | ( var49 == 0 & var68 == 0 & var48 == 1 ) | ( var49 == 0 & var68 == 1 & var48 == 0 ) | ( var49 == 1 & var68 == 0 & var48 == 0 ) | ( var49 == 1 & var68 == 1 & var48 == 1 ) | ( var50 == 0 & var67 == 0 & var49 == 1 ) | ( var50 == 0 & var67 == 1 & var49 == 0 ) | ( var50 == 1 & var67 == 0 & var49 == 0 ) | ( var50 == 1 & var67 == 1 & var49 == 1 ) | ( var51 == 0 & var66 == 0 & var50 == 1 ) | ( var51 == 0 & var66 == 1 & var50 == 0 ) | ( var51 == 1 & var66 == 0 & var50 == 0 ) | ( var51 == 1 & var66 == 1 & var50 == 1 ) | ( var52 == 0 & var65 == 0 & var51 == 1 ) | ( var52 == 0 & var65 == 1 & var51 == 0 ) | ( var52 == 1 & var65 == 0 & var51 == 0 ) | ( var52 == 1 & var65 == 1 & var51 == 1 ) | ( var53 == 0 & var64 == 0 & var52 == 1 ) | ( var53 == 0 & var64 == 1 & var52 == 0 ) | ( var53 == 1 & var64 == 0 & var52 == 0 ) | ( var53 == 1 & var64 == 1 & var52 == 1 ) | ( var54 == 0 & var63 == 0 & var53 == 1 ) | ( var54 == 0 & var63 == 1 & var53 == 0 ) | ( var54 == 1 & var63 == 0 & var53 == 0 ) | ( var54 == 1 & var63 == 1 & var53 == 1 ) | ( var55 == 0 & var62 == 0 & var54 == 1 ) | ( var55 == 0 & var62 == 1 & var54 == 0 ) | ( var55 == 1 & var62 == 0 & var54 == 0 ) | ( var55 == 1 & var62 == 1 & var54 == 1 ) | ( var56 == 0 & var61 == 0 & var55 == 1 ) | ( var56 == 0 & var61 == 1 & var55 == 0 ) | ( var56 == 1 & var61 == 0 & var55 == 0 ) | ( var56 == 1 & var61 == 1 & var55 == 1 ) | ( var57 == 0 & var60 == 0 & var56 == 1 ) | ( var57 == 0 & var60 == 1 & var56 == 0 ) | ( var57 == 1 & var60 == 0 & var56 == 0 ) | ( var57 == 1 & var60 == 1 & var56 == 1 ) |  0) 
myvar0 = 1;
else exit(0);
if(( var58 == 0 & var59 == 0 & var57 == 0 ) | ( var58 == 0 & var59 == 1 & var57 == 1 ) | ( var58 == 1 & var59 == 0 & var57 == 1 ) | ( var58 == 1 & var59 == 1 & var57 == 0 ) |  0) 
myvar0 = 1;
else exit(0);
assert(0);
return 0;
/* 
0 x[0]
1 x[1]
2 x[2]
3 x[3]
4 x[4]
5 x[5]
6 x[6]
7 x[7]
8 x[8]
9 x[9]
10 x[10]
11 x[11]
12 x[12]
13 x[13]
14 x[14]
15 x[15]
16 x[16]
17 x[17]
18 x[18]
19 x[19]
20 x[20]
21 x[21]
22 x[22]
23 x[23]
24 x[24]
25 x[25]
26 x[26]
27 x[27]
28 x[28]
29 x[29]
30 x[30]
31 x[31]
32 x[32]
33 x[33]
34 x[34]
35 x[35]
36 x[36]
37 x[37]
38 x[38]
39 x[39]
40 x[40]
41 x[41]
42 x[42]
43 x[43]
44 x[44]
45 x[45]
46 x[46]
47 x[47]
48 x[48]
49 x[49]
50 x[50]
51 x[51]
52 x[52]
53 x[53]
54 x[54]
55 x[55]
56 x[56]
57 x[57]
58 x[58]
59 x[59]
60 x[60]
61 x[61]
62 x[62]
63 x[63]
64 x[64]
65 x[65]
66 x[66]
67 x[67]
68 x[68]
69 x[69]
70 x[70]
71 x[71]
72 x[72]
73 x[73]
74 x[74]
75 x[75]
76 x[76]
77 x[77]
78 x[78]
79 x[79]
80 x[80]
81 x[81]
82 x[82]
83 x[83]
84 x[84]
85 x[85]
86 x[86]
87 x[87]
88 x[88]
89 x[89]
 */}
